svm_type epsilon_svr
kernel_type rbf
gamma 12.5
nr_class 2
total_sv 67
rho -0.141711
SV
-0.007278803029863154 1:-0.743946 2:-0.161989 3:0.459298 
0.05193885126118506 1:-0.606763 2:-0.005423 3:0.532645 
-0.05244642110187803 1:-0.745751 2:-0.157681 3:0.456197 
-7.451784888726894 1:-0.722954 2:-0.08855 3:0.186346 
-3.853134933342255 1:-0.526253 2:0.113985 3:0.185448 
4.402537942290438 1:-0.467331 2:0.212417 3:0.198083 
0.3220504316829362 1:-0.420473 2:0.286866 3:0.538614 
1.586531234185461 1:-0.634672 2:-0.154754 3:0.204939 
0.472323822650873 1:-0.425411 2:-0.220926 3:0.194535 
0.2872182022505926 1:-0.826916 2:-0.22165 3:0.537963 
0.0828763548900501 1:-0.624392 2:0.01734 3:0.421799 
0.0562260940721938 1:-0.397311 2:-0.019395 3:0.533536 
7.067987225403319 1:-0.73067 2:0.0025 3:0.204168 
-0.1896430236740707 1:-0.806846 2:0.222647 3:0.437608 
2.563479032574576 1:-0.57998 2:-0.016011 3:0.206878 
0.949919202465242 1:-0.448945 2:0.002425 3:0.192327 
-0.007615077560709956 1:-0.796967 2:0.194487 3:0.453899 
0.165941908349057 1:-0.842776 2:0.067153 3:0.537456 
0.06186358400969065 1:-0.404683 2:-0.050186 3:0.535116 
3.302401880814265 1:-0.67082 2:-0.174607 3:0.199647 
-0.2421828631016269 1:-0.454824 2:-0.150054 3:0.432785 
1.551370071495094 1:-0.68495 2:0.297369 3:0.189132 
0.09932550358065871 1:-0.627526 2:0.29926 3:0.535348 
-0.006004427189949852 1:-0.723662 2:-0.174983 3:0.441518 
-0.3512813522199618 1:-0.518658 2:0.209826 3:0.461767 
0.01588105123833685 1:-0.632442 2:0.019333 3:0.458531 
-0.9182653412359241 1:-0.408563 2:-0.120112 3:0.184567 
-1.463637699608164 1:-0.829888 2:0.122754 3:0.186416 
0.2176687088911621 1:-0.805677 2:0.294597 3:0.538971 
0.05306618206298662 1:-0.632902 2:0.030704 3:0.538314 
0.006957617488703745 1:-0.614722 2:-0.00222 3:0.413822 
-2.265473806461138 1:-0.436043 2:0.272936 3:0.186231 
-0.03646373305298813 1:-0.523882 2:0.20447 3:0.439272 
0.209409830786278 1:-0.40306 2:-0.191113 3:0.540337 
-0.03068748404481298 1:-0.715321 2:-0.170949 3:0.438236 
1.528669156536465 1:-0.818377 2:0.293168 3:0.189149 
8.292986634067343 1:-0.778191 2:-0.14288 3:0.200664 
-0.01131591136237394 1:-0.796116 2:0.193266 3:0.450481 
-0.02290761459279349 1:-0.442967 2:-0.139137 3:0.440432 
-0.1679656694338969 1:-0.738935 2:-0.157175 3:0.456414 
-2.060534047678376 1:-0.591414 2:-0.220874 3:0.187799 
0.7187089414213026 1:-0.670554 2:0.245761 3:0.194122 
-3.49139343566849 1:-0.720824 2:-0.082846 3:0.200161 
-2.710696166623793 1:-0.819744 2:-0.216624 3:0.189076 
-0.02209336705373981 1:-0.76137 2:-0.106134 3:0.473282 
-0.04537818937352153 1:-0.543444 2:0.130241 3:0.286902 
0.1069060922400412 1:-0.556095 2:-0.219651 3:0.534808 
-3.220522638950412 1:-0.737371 2:0.295824 3:0.184687 
-1.946987102162239 1:-0.731953 2:-0.082608 3:0.237212 
0.0497778096738145 1:-0.597139 2:-0.011804 3:0.20235 
-0.1850087050705927 1:-0.534343 2:0.11348 3:0.240286 
-0.6281295905627398 1:-0.506821 2:0.108299 3:0.239943 
-0.1929259870816788 1:-0.726535 2:-0.067749 3:0.236969 
-0.5260751431550297 1:-0.727311 2:-0.067836 3:0.236883 
-0.03979910135594906 1:-0.728075 2:-0.067936 3:0.236783 
-0.0172597557600694 1:-0.526526 2:0.125378 3:0.239984 
-0.1171665656690157 1:-0.721312 2:-0.081611 3:0.238323 
-0.05461902712729649 1:-0.721073 2:-0.081809 3:0.238342 
-0.1638931959513318 1:-0.719753 2:-0.08324 3:0.238426 
-0.4768637884796604 1:-0.732795 2:-0.07503 3:0.236702 
-0.02622788712391569 1:-0.728631 2:-0.087867 3:0.237544 
-0.2241705399996979 1:-0.73009 2:-0.086003 3:0.237424 
-0.3329682877933511 1:-0.732052 2:-0.083726 3:0.237186 
-0.4713577454245148 1:-0.733548 2:-0.082124 3:0.236949 
-0.3863870380496051 1:-0.538726 2:0.127674 3:0.239516 
0.07688207828406936 1:-0.604937 2:-0.006018 3:0.203043 
0.1176409111881788 1:-0.605484 2:-0.006838 3:0.203054 
