svm_type epsilon_svr
kernel_type rbf
gamma 12.5
nr_class 2
total_sv 302
rho -0.0551396
SV
0.2999961342945981 1:-0.107051 2:-0.735435 3:0.379626 
-100 1:0.0226415 2:-0.0695636 3:0.0226157 
-100 1:0.00583512 2:-0.0081653 3:0.0210207 
100 1:-0.016734 2:-0.759424 3:0.031923 
-2.182596953069933 1:-0.502338 2:-0.752574 3:0.314857 
-7.4183031780808 1:-0.245585 2:-0.662686 3:0.0249316 
-31.07162508724382 1:-0.00471139 2:-0.499744 3:0.0176506 
7.4644491994104 1:-0.151473 2:-0.0795224 3:0.341041 
100 1:-0.0905817 2:-0.664413 3:0.0233981 
-48.26228021505663 1:-0.511474 2:-0.75523 3:0.0630056 
-2.896684590845587 1:0.0155768 2:-0.400672 3:0.169107 
100 1:-0.53968 2:-0.759759 3:0.0337784 
-100 1:-0.526978 2:-0.754446 3:0.0189973 
0.1640248200578325 1:-0.137889 2:-0.0765956 3:0.36917 
0.1422495787616102 1:0.0205053 2:-0.695894 3:0.16475 
-100 1:-0.0300251 2:-0.807923 3:0.0227412 
46.23602232444559 1:-0.496608 2:-0.06169 3:0.0279288 
5.591076844082885 1:-0.537065 2:-0.705919 3:0.166391 
-26.49347652784023 1:-0.328737 2:-0.133807 3:0.0420752 
100 1:-0.55021 2:-0.188817 3:0.0265411 
20.71849587147202 1:-0.304575 2:-0.556833 3:0.0189077 
-100 1:-0.512968 2:-0.431908 3:0.0257728 
-43.79708494066377 1:-0.238643 2:-0.141199 3:0.027808 
2.111759891690307 1:-0.522297 2:-0.603907 3:0.377136 
5.363166547551137 1:-0.55071 2:-0.49915 3:0.0278592 
-5.635585432363725 1:0.00105023 2:-0.70652 3:0.068104 
-27.59925625627437 1:-0.512355 2:-0.149541 3:0.0688474 
2.029229593625165 1:-0.236599 2:-0.0708083 3:0.34732 
-0.117539243257259 1:0.0157597 2:-0.139203 3:0.304947 
-100 1:-0.540327 2:-0.107138 3:0.0175889 
15.16006383502196 1:-0.0256997 2:-0.0206613 3:0.0346308 
-48.79766994613583 1:-0.0395938 2:-0.100156 3:0.0614902 
0.2580264345194078 1:-0.135141 2:-0.709267 3:0.375761 
100 1:0.00240397 2:-0.755831 3:0.0262874 
7.124128342220045 1:-0.546742 2:-0.720517 3:0.159139 
-0.01957299179452831 1:-0.434947 2:-0.775193 3:0.290846 
-11.38441499451256 1:-0.499703 2:-0.810708 3:0.0735806 
100 1:-0.476731 2:-0.0591413 3:0.023094 
-100 1:-0.485343 2:-0.047569 3:0.0173237 
-33.96566668310018 1:-0.0780777 2:-0.792461 3:0.0510543 
100 1:-0.000483632 2:-0.0354333 3:0.0279741 
100 1:-0.449659 2:-0.733079 3:0.0247551 
100 1:-0.200636 2:-0.787254 3:0.0276203 
0.1390852781219938 1:-0.477044 2:-0.349424 3:0.181708 
100 1:-0.509445 2:-0.573177 3:0.0278298 
-84.65963649342211 1:-0.0259118 2:-0.0122348 3:0.0792841 
-21.66451160375895 1:-0.0977194 2:-0.477946 3:0.0492009 
-100 1:-0.547125 2:-0.136527 3:0.021535 
-100 1:-0.159369 2:-0.268228 3:0.0385655 
100 1:-0.512927 2:-0.110088 3:0.0304292 
-0.2661332418746625 1:-0.134177 2:-0.0338244 3:0.261735 
100 1:-0.00795376 2:-0.775002 3:0.0240754 
100 1:-0.547111 2:-0.732127 3:0.0332746 
2.349783787073649 1:-0.531307 2:-0.780773 3:0.378027 
100 1:-0.0172114 2:-0.0907242 3:0.0334594 
-100 1:-0.0238082 2:-0.0740855 3:0.0278134 
42.91369008953257 1:-0.0884885 2:-0.00629443 3:0.175761 
-60.84914900824483 1:-0.112393 2:-0.606089 3:0.0275611 
-100 1:-0.54937 2:-0.122687 3:0.0188219 
-0.3413302203401298 1:-0.290298 2:-0.544614 3:0.302086 
-50.32413149428118 1:-0.181928 2:-0.0283673 3:0.0265796 
100 1:-0.517638 2:-0.464074 3:0.0305412 
15.60130397024588 1:-0.0739249 2:-0.241024 3:0.0337335 
100 1:-0.207482 2:-0.196096 3:0.0359246 
-42.98124560118195 1:0.0175511 2:-0.00808555 3:0.0741957 
9.352034157784562 1:-0.471024 2:-0.763387 3:0.163232 
-2.499445939160888 1:-0.504317 2:-0.130144 3:0.302399 
-100 1:-0.0444524 2:-0.0648632 3:0.0258781 
8.179651997973494 1:-0.0516245 2:-0.719791 3:0.0276166 
0.06684366849040091 1:-0.453238 2:-0.0638455 3:0.159563 
29.24637782854025 1:-0.528281 2:-0.0471015 3:0.176316 
0.5762167683181487 1:0.0137795 2:-0.422694 3:0.373432 
-0.2803404875585643 1:-0.203661 2:-0.175645 3:0.378363 
-74.99983867571251 1:-0.516026 2:-0.0918928 3:0.0681029 
6.777155499847985 1:-0.0261686 2:-0.170071 3:0.175223 
-100 1:-0.160627 2:-0.269785 3:0.04021 
2.336249768616037 1:-0.417809 2:-0.0134856 3:0.379172 
7.479432047567164 1:-0.52889 2:-0.714985 3:0.193858 
0.8487636714605447 1:-0.477618 2:-0.589594 3:0.176484 
-0.4011134117971134 1:-0.54072 2:-0.643668 3:0.304091 
100 1:-0.13467 2:-0.680816 3:0.0236939 
100 1:0.0217614 2:-0.104933 3:0.0285453 
100 1:-0.0381462 2:-0.0190576 3:0.0284634 
48.52873590672968 1:0.00142574 2:-0.0527639 3:0.173145 
-44.36356601134564 1:-0.377069 2:-0.506732 3:0.074356 
-7.276483631499565 1:-0.438271 2:-0.279169 3:0.0287526 
-100 1:-0.126393 2:-0.631899 3:0.0291977 
71.54801612448921 1:-0.0324341 2:-0.580681 3:0.0181398 
100 1:-0.532644 2:-0.780341 3:0.0323786 
-4.550107222050939 1:-0.517539 2:-0.676125 3:0.0217301 
-100 1:-0.519585 2:-0.775407 3:0.0233239 
61.01530475795943 1:-0.463227 2:-0.142926 3:0.0275808 
-70.45589402551445 1:0.0124403 2:-0.103187 3:0.0552939 
-2.367453777705685 1:-0.394066 2:-0.228693 3:0.0484032 
100 1:-0.510872 2:-0.0949479 3:0.0227268 
-11.52577611848911 1:-0.0143244 2:-0.0790436 3:0.288681 
1.059775032367235 1:-0.20367 2:-0.43337 3:0.326262 
-12.25269453362158 1:-0.392601 2:-0.191879 3:0.0453186 
0.5448605106628838 1:-0.310281 2:-0.334566 3:0.37505 
-91.11134908128111 1:-0.542561 2:-0.0806305 3:0.0783252 
2.546356516950261 1:-0.412529 2:-0.715069 3:0.37914 
-100 1:-0.356332 2:-0.472039 3:0.0462539 
-25.3907737522601 1:-0.468405 2:-0.62678 3:0.0556282 
13.81506799283825 1:-0.187744 2:-0.101015 3:0.0254427 
1.628403363722339 1:-0.526086 2:-0.0161155 3:0.162553 
100 1:-0.534112 2:-0.0690398 3:0.0232928 
-0.8103737531486171 1:-0.170334 2:-0.293285 3:0.0649196 
9.833615660509164 1:0.0213937 2:-0.678562 3:0.170063 
1.190555882991205 1:-0.00806016 2:-0.690572 3:0.377895 
-12.68200628732874 1:-0.090498 2:-0.0414072 3:0.284917 
-47.52976654950263 1:-0.525724 2:-0.651954 3:0.0630304 
4.439302633622421 1:-0.316951 2:-0.394489 3:0.0179648 
100 1:-0.538736 2:-0.076984 3:0.0227791 
-5.282735594151061 1:-0.549348 2:-0.279094 3:0.0775105 
-2.253656467132214 1:-0.204689 2:-0.227166 3:0.230393 
-100 1:-0.0576354 2:-0.753829 3:0.0174373 
-100 1:-0.501956 2:-0.789856 3:0.0237519 
15.56831302807741 1:-0.490232 2:-0.176642 3:0.0177691 
21.01376198668221 1:-0.187377 2:-0.213266 3:0.0606187 
0.7012974518311069 1:0.0164298 2:-0.358369 3:0.375882 
-3.997714036756885 1:-0.490226 2:-0.732693 3:0.310193 
99.45938148573718 1:-0.528458 2:-0.709583 3:0.0306687 
-3.526279289931838 1:0.0176582 2:-0.659713 3:0.294747 
-0.08581651676126237 1:-0.11011 2:-0.049545 3:0.247988 
-100 1:-0.542026 2:-0.115819 3:0.0181122 
-0.694260000217173 1:-0.456666 2:-0.601623 3:0.0390078 
-6.299157044670487 1:-0.426907 2:-0.233972 3:0.0517408 
4.417734892552692 1:-0.27561 2:-0.258359 3:0.0394908 
-17.94472059938082 1:0.0209453 2:-0.744351 3:0.048045 
-67.12453905050795 1:-0.366062 2:-0.720845 3:0.0210937 
-100 1:0.0117985 2:-0.014376 3:0.0175482 
6.270146820754263 1:-0.502271 2:-0.439721 3:0.1742 
100 1:-0.0227369 2:-0.0622608 3:0.0320714 
-100 1:-0.015047 2:-0.00980037 3:0.0181237 
-30.48691622307109 1:-0.525394 2:-0.310728 3:0.0673985 
100 1:0.0226938 2:-0.0619268 3:0.0341972 
11.34397714798955 1:-0.42467 2:-0.723084 3:0.025658 
4.788445944229285 1:-0.0445507 2:-0.00645864 3:0.147164 
100 1:-0.512769 2:-0.803077 3:0.0244712 
-100 1:-0.0365969 2:-0.010679 3:0.0673314 
-100 1:-0.0583082 2:-0.76445 3:0.0206901 
0.3651572449333663 1:-0.489486 2:-0.649074 3:0.376156 
-100 1:-0.0157264 2:-0.0506453 3:0.020235 
0.5297403773046012 1:-0.328059 2:-0.802382 3:0.177325 
-0.06438353115220621 1:-0.0484757 2:-0.249577 3:0.263401 
-1.163868280066239 1:-0.25317 2:-0.708646 3:0.268091 
-16.37082574368661 1:-0.35404 2:-0.707438 3:0.0604519 
100 1:-0.130565 2:-0.785908 3:0.0302893 
-1.733707909984352 1:-0.390554 2:-0.188626 3:0.0372257 
-100 1:-0.0197686 2:-0.716238 3:0.0180065 
100 1:-0.0319453 2:-0.0226409 3:0.0289395 
-100 1:-0.537798 2:-0.712081 3:0.0227283 
-1.018332266553957 1:-0.283549 2:-0.541622 3:0.307693 
-100 1:-0.506956 2:-0.633717 3:0.023364 
-100 1:-0.546787 2:-0.771357 3:0.019792 
-0.2171518229245878 1:-0.492267 2:-0.459235 3:0.291775 
3.113569257958432 1:-0.549466 2:-0.053803 3:0.379364 
0.36002713899671 1:0.0181224 2:-0.702593 3:0.376419 
0.001530241368010843 1:-0.216659 2:-0.548496 3:0.133672 
100 1:-0.410508 2:-0.487001 3:0.0452611 
14.76364847865703 1:-0.476034 2:-0.0894869 3:0.164802 
-4.506407033980548 1:0.011208 2:-0.270608 3:0.0575587 
24.58471310566724 1:-0.340958 2:-0.00851446 3:0.024245 
-0.7193044203425736 1:-0.36726 2:-0.745006 3:0.297402 
100 1:0.016373 2:-0.0553634 3:0.0488442 
10.43241155419128 1:-0.400982 2:-0.371592 3:0.0427465 
14.20365433273972 1:-0.295786 2:-0.586006 3:0.116781 
-100 1:-0.527943 2:-0.128507 3:0.0234216 
5.955788439304527 1:0.0162384 2:-0.774293 3:0.195627 
-5.317270679936425 1:-0.254303 2:-0.707659 3:0.0733222 
-5.329573652525484 1:0.0159125 2:-0.258326 3:0.0572499 
13.31906145098369 1:0.0195308 2:-0.160779 3:0.162792 
94.40754080109643 1:-0.512537 2:-0.354146 3:0.026753 
-18.88163615968196 1:0.0188758 2:-0.805092 3:0.05901 
-0.171156934884883 1:-0.0432952 2:-0.262202 3:0.263936 
-0.9722932562351818 1:-0.471819 2:-0.432143 3:0.303388 
-98.36045508268758 1:0.0125371 2:-0.0957204 3:0.0218763 
100 1:0.0115111 2:-0.0671441 3:0.0383351 
-1.699792604643132 1:-0.521739 2:-0.652266 3:0.0606102 
-0.7372468704115787 1:-0.173973 2:-0.0254338 3:0.240918 
1.079334939446866 1:-0.362819 2:-0.634556 3:0.175131 
-0.09779306389186067 1:-0.547891 2:-0.6621 3:0.320449 
-100 1:-0.0003196 2:-0.0583696 3:0.0191489 
-100 1:0.0170297 2:-0.794566 3:0.0179948 
0.5749960488170472 1:-0.516563 2:-0.712904 3:0.160876 
-0.8393131852126722 1:-0.0620714 2:-0.757379 3:0.062296 
-9.572699408501846 1:-0.100824 2:-0.529137 3:0.053575 
-35.58543862909373 1:-0.180011 2:-0.791204 3:0.0258168 
-13.18458418007113 1:-0.517247 2:-0.424224 3:0.0232168 
100 1:-0.549068 2:-0.120802 3:0.0446243 
-6.083961816984035 1:0.00103021 2:-0.693824 3:0.0437028 
-21.4676401180942 1:-0.506757 2:-0.559061 3:0.0179221 
-0.6119153698208674 1:-0.266683 2:-0.717444 3:0.285765 
1.952328130984202 1:-0.0186878 2:-0.0170541 3:0.376741 
-1.362100730323322 1:-0.371585 2:-0.211807 3:0.0495954 
-0.1347485862648238 1:-0.243367 2:-0.010973 3:0.207786 
95.70770123337803 1:0.011269 2:-0.505022 3:0.0224297 
-100 1:-0.475667 2:-0.0644264 3:0.0199114 
-100 1:-0.0406425 2:-0.710317 3:0.0174346 
-5.428301228393363 1:-0.244094 2:-0.00731051 3:0.221274 
-100 1:-0.510419 2:-0.454299 3:0.027265 
-90.70033346504208 1:0.0086174 2:-0.0941955 3:0.0820982 
4.798271553359796 1:-0.0536222 2:-0.10838 3:0.376038 
2.03380569573194 1:-0.548789 2:-0.00915176 3:0.202111 
0.8910139294074979 1:0.0204923 2:-0.623505 3:0.143284 
-14.2593447655028 1:-0.0360638 2:-0.771244 3:0.076245 
100 1:-0.00491744 2:-0.0247896 3:0.0303034 
-4.777472318617726 1:-0.0252733 2:-0.759408 3:0.30589 
-1.607826706323474 1:-0.240861 2:-0.160707 3:0.379177 
0.2464129030089086 1:-0.316543 2:-0.804865 3:0.183637 
-100 1:0.0185106 2:-0.059556 3:0.0213244 
-0.2643351016778154 1:0.0153199 2:-0.715099 3:0.29677 
0.6497918361994738 1:-0.0284138 2:-0.181188 3:0.153018 
-29.81829386719773 1:-0.359734 2:-0.80917 3:0.0440523 
-100 1:-0.0221219 2:-0.771548 3:0.0202145 
-100 1:0.0102361 2:-0.0938854 3:0.0771628 
71.3021525250012 1:-0.0392741 2:-0.658623 3:0.029829 
100 1:-0.0100452 2:-0.0725752 3:0.0397308 
-100 1:-0.0352516 2:-0.0408859 3:0.0235643 
100 1:-0.0174342 2:-0.0753739 3:0.0354689 
-100 1:0.0156382 2:-0.714927 3:0.047456 
1.552016753655512 1:-0.473689 2:-0.351559 3:0.172327 
60.21832392168754 1:-0.0663787 2:-0.0130469 3:0.0178479 
100 1:-0.0302804 2:-0.743552 3:0.0253635 
-3.178305500535838 1:-0.237509 2:-0.703516 3:0.0674404 
11.55917828369248 1:-0.0220385 2:-0.192403 3:0.147272 
100 1:-0.530347 2:-0.72542 3:0.027874 
-5.256822678521124 1:-0.034322 2:-0.258794 3:0.280378 
26.3469428104386 1:-0.526324 2:-0.104438 3:0.0341007 
-10.33256372209599 1:-0.502989 2:-0.0232161 3:0.29817 
2.678921243743936 1:-0.245461 2:-0.259858 3:0.0479085 
-100 1:-0.0237781 2:-0.0946732 3:0.0265129 
100 1:0.0223861 2:-0.0168572 3:0.0347168 
100 1:-0.0269028 2:-0.0228879 3:0.0277675 
0.00103732505116539 1:0.00649476 2:-0.386632 3:0.363573 
9.526033530955667 1:-0.532482 2:-0.789098 3:0.191859 
-0.3906233194084006 1:-0.48749 2:-0.475429 3:0.295622 
-0.4860901793802206 1:-0.532582 2:-0.115392 3:0.309539 
7.40990742882015 1:-0.102066 2:-0.808547 3:0.183445 
-45.84149135369434 1:0.0108809 2:-0.00695539 3:0.0941666 
0.2422924746560931 1:-0.472775 2:-0.586758 3:0.180506 
-71.71485910922819 1:-0.548521 2:-0.772504 3:0.0831115 
-6.013340126562574 1:-0.509191 2:-0.743355 3:0.314168 
-5.658700838106467 1:-0.380457 2:-0.479145 3:0.0883481 
-3.507050845172244 1:-0.504439 2:-0.114154 3:0.30929 
0.160118331373192 1:-0.54739 2:-0.197527 3:0.379018 
-99.29776585940371 1:-0.198065 2:-0.782097 3:0.025066 
-60.17666390775832 1:-0.543301 2:-0.0549676 3:0.0733838 
-36.15743632819575 1:-0.00688607 2:-0.333284 3:0.0173273 
-0.4095086325802546 1:-0.433396 2:-0.774182 3:0.309699 
31.18968644740973 1:-0.162531 2:-0.196164 3:0.0227994 
-0.2658980142511264 1:-0.173129 2:-0.315415 3:0.199898 
-2.634549833258177 1:-0.493971 2:-0.476396 3:0.296643 
-29.1844924342852 1:-0.545121 2:-0.75655 3:0.0828331 
-2.143468622514644 1:-0.454206 2:-0.278833 3:0.0554335 
-2.297296005348421 1:-0.528491 2:-0.632754 3:0.058532 
21.1169080366345 1:-0.249341 2:-0.480355 3:0.0322761 
0.9968328858238854 1:-0.0345687 2:-0.648249 3:0.168936 
91.19234603543974 1:0.00616181 2:-0.754045 3:0.0234783 
69.07253432181201 1:-0.333143 2:-0.568691 3:0.0399959 
-13.28397819213482 1:-0.10055 2:-0.044405 3:0.27903 
100 1:-0.548136 2:-0.107836 3:0.0438847 
77.50480774006249 1:-0.397973 2:-0.788125 3:0.0277536 
1.460274021959826 1:-0.384793 2:-0.630865 3:0.176386 
54.00076441014056 1:-0.451621 2:-0.481966 3:0.0227279 
-32.25268342156093 1:-0.0699786 2:-0.80166 3:0.0810491 
-100 1:0.000371277 2:-0.512599 3:0.0186865 
-10.55167879426372 1:-0.409692 2:-0.285761 3:0.0320317 
-1.224794680282793 1:0.0127792 2:-0.0819559 3:0.300857 
1.091946242876204 1:-0.503557 2:-0.328191 3:0.379049 
0.4978492182177809 1:-0.453045 2:-0.340999 3:0.169873 
-30.57367329970666 1:-0.489036 2:-0.267439 3:0.0242563 
21.25207911309582 1:-0.542341 2:-0.75957 3:0.0345892 
100 1:0.0204026 2:-0.0147147 3:0.0396031 
38.56654147750857 1:-0.0250976 2:-0.0867344 3:0.032508 
-92.70721854624827 1:-0.356416 2:-0.481172 3:0.0227569 
0.9985704376067118 1:-0.0419506 2:-0.654087 3:0.161596 
-21.13677908577111 1:-0.515638 2:-0.0936056 3:0.0635969 
0.2575305589020112 1:-0.315677 2:-0.80832 3:0.378057 
59.60539544110362 1:-0.326277 2:-0.386782 3:0.0470513 
1.138091758038682 1:-0.543443 2:-0.795385 3:0.196124 
52.57637482632424 1:-0.49634 2:-0.0137902 3:0.0265738 
5.283849493095555 1:-0.0244998 2:-0.0131469 3:0.182361 
100 1:-0.522086 2:-0.800748 3:0.0340598 
0.4149643708298968 1:-0.0975389 2:-0.439869 3:0.300843 
9.1662215948868 1:-0.107843 2:-0.185083 3:0.124462 
100 1:-0.0439874 2:-0.806487 3:0.0262252 
0.8926160621574035 1:0.0192754 2:-0.803328 3:0.378872 
17.06591113771291 1:-0.238029 2:-0.0534678 3:0.0256434 
-100 1:-0.496187 2:-0.797962 3:0.023059 
-100 1:-0.499696 2:-0.0287373 3:0.0195041 
100 1:-0.00371104 2:-0.79787 3:0.0253941 
0.5462535312850968 1:-0.355999 2:-0.620537 3:0.15395 
100 1:-0.0201194 2:-0.16461 3:0.0257985 
100 1:-0.112449 2:-0.375596 3:0.0369281 
75.17522742125837 1:-0.548898 2:-0.082782 3:0.0338481 
-0.124827469401331 1:0.021912 2:-0.374599 3:0.208004 
-0.7144425822951832 1:-0.547303 2:-0.624083 3:0.319667 
14.89761705540672 1:0.0216243 2:-0.332706 3:0.0226765 
15.23785231282074 1:-0.236464 2:-0.334187 3:0.0430515 
7.228814709791331 1:-0.497308 2:-0.190261 3:0.179928 
9.859569880345552 1:-0.469032 2:-0.448921 3:0.026591 
